0,0061274862630598;0,0752069124172762;0,195596253935114;-0,334428708887419;0,331648565870442;0,418329414451454;0,343176423485216;-0,338182883858759;-0,10235713568231;-0,0119290403315425;-0,292577384056211;0,326688455566319;0,16433085780755;-0,151744915094522;0,13177732412164;0,390471897974298;-0,432381142242415;0,164932206635321;0,311837361410236;0,243775024087795;-0,233909717487445;0,0624864213328072;-0,137898928071805;-0,374095201025993;0,411471281368771;0,0812288647859819;0,438156015575125;0,45359206741036;-0,390834042620486;0,194491194600759;0,367393696766934;-0,21296654834348;-0,187056016408002;-0,00612651688046289;-0,23031911420218;0,490093380594378;0,231310880237806;-0,372161738052691;-0,292271037870655;0,133721556480454;0,175330741353451;0,310781982361994;0,305660722174625;-0,137337690591015;0,144407621674137;-0,395208134441165;0,329521726949864;-0,223950653032696;0,319232246030895;-0,134949896607373;0,0280673395987154;-0,306831388363405;0,252749236188792;0,243494198065859;0,00906113575725442;-0,443618309297742;0,268481962660989;-0,18311580167269;0,109137087903275;-0,295398849146165;0,141742091308272;0,0347472691224694;0,106805620898041;0,170866894160601;-0,0504277193429415;0,0759427538696724;0,00546201387586151;0,0307177451945826;0,032814170263432;-0,0464954989402522;-0,0189638275205274;0,126075945292172;-0,0739079196543909;-0,0863818745632892;0,0857624888182511;0,0163929292525334;-0,100397533580574;0,0924985274274347;0,0493722481123329;0,101795063688641;-0,125971313218037;0,181420363831681;0,156900513339692;0,227237273965463;-0,0274912833220723;-0,0605480262096577;0,223684738868747;-0,151081124137535;0,041566366821371;-0,114038535966562;0,19376344948513;-0,117271693935708;-0,104308554239471;0,0362217982107699;-0,133439060581006;0,20663974531244;0,20524388400474;0,0597544231182081;0,0104710561574003;0,205334121240827;0,149822604939089;-0,132254807712097;-0,155864596193887;-0,052054925059142;0,0738230840674857;-0,174347015121092;0,193589855170473;-0,109557076538826;-0,227228896152115;-0,0732268074832316;-0,176429897625755;0,0338460772671914;-0,200075217870835;0,137530180494898;0,0267071430400458;0,069832158423874;0,196559370317576;-0,0463253844026587;0,0434076852483791;-0,145418554062432;-0,0207636198845249;-0,165821359489033;0,177825111681783;-0,0171112594333204;-0,00878590878506389;-0,103134124998531;-0,0886229833661583;-2,81715274250728E-05;0,0941382261854438;-0,0771918297186012;-0,130926079903849;0,0102275066032395;-0,118521725572779;0,195560847679544;-0,247237113323603;0,192552115258171;-0,246600815895295;-0,0608513323718745;-0,190870029259646;-0,265617834299664;0,260320050805811;0,216976666616228;0,112927518297974;-0,0664530000740451;0,181408810059914;-0,170279360465215;0,190072888827258;-0,23414170053052;-0,0915370959953096;0,128756313605251;-0,249770603624205;0,222620318214014;-0,197655993843121;0,114356568362576;-0,154564309852183;0,120912080021246;-0,226693404687246;0,00840399915022559;0,16045099892079;0,20356005954702;-0,0662583219299372;0,146445878594608;0,247897105927987;0,0948226732349251;-0,128588025332504;-0,14407259363352;0,131983488846964;0,0216903248531144;0,184666045514719;-0,25428245747495;-0,408034885928205;-0,0779925424918675;0,0206042824131673;0,424811226442201;0,00639016645728934;0,0946411791767197;0,257017877976652;0,36729504641207;-0,3527699122099;0,244945732686971;-0,410528514934428;-0,572586502683448;0,270839803398536;0,310338107999667;-0,0313015609085538;0,462578059711255;0,091689881149244;0,183219893345239;0,436585317904622;-0,530347519563132;0,236445322436802;0,0865403392673749;
