-0,46616430571017;-0,850561320303368;-1,0713413899677;-0,536698679651888;1,09152834657153;-0,5438166835322;-0,0958040975478442;-0,308590428817734;0,395316402911819;0,0222382964516688;-0,126204501084678;0,0808951985840269;-0,293738551248279;0,41349616006817;-0,277278540076203;0,288240074016775;0,0121034283988899;-0,441427302381878;0,662271263997964;1,27618980094716;-0,186016813218577;-1,84203629278615;-0,636364537935912;-0,195854423646093;-0,122442970520666;-0,316679172188539;0,0671248366316827;0,376594018670657;0,420889884506522;0,226016747912682;0,260018408512069;0,298586798283129;0,219096444546437;0,244060623334777;0,52953617028369;-0,291690633669738;-0,759648731207558;-0,389379765721612;0,439806871052015;-0,111187062390354;0,781155038553506;-0,170559553132522;-0,269716836827858;0,254086519576165;-0,426451069497963;0,413038705432449;-0,57087524215739;-0,345185886557664;-0,199243891500052;-0,405683987844849;0,151909176446758;0,265841737654112;0,107906845120137;-0,248390419109557;0,200508058340661;0,405822912647417;0,461179996249904;0,141377529599559;0,269347022668157;0,145817475895708;-0,0090486565131483;0,134266925908783;0,0986537787079831;-0,00803540732007282;-0,0784682184120689;0,645769448375903;-0,00739775346296394;-0,0297213559467608;-0,0255604845739808;-0,280217550802806;-0,577291918781629;-0,851030059505978;-0,417885926257365;-0,0969546293402071;0,910298002051562;1,10311765465681;0,942957385318234;0,411089743502173;-0,0464787878689521;1,10027633895679;-0,753096120427418;0,477928757502322;
