-0,48469215631485;0,107846736907959;-0,383889138698578;0,158040165901184;0,0333239436149597;-0,115610241889954;-0,194922149181366;0,341062545776367;-0,0134021043777466;-0,0880608558654785;0,306215465068817;-0,711014926433563;-0,477062255144119;-0,404339820146561;0,152908027172089;0,241950035095215;-0,0287968516349792;-0,296280413866043;0,487889647483826;-0,581776201725006;-0,612875044345856;0,0633357167243958;-0,0674713850021362;-0,0307820439338684;-0,378599852323532;-0,357225209474564;0,392400056123734;0,345528215169907;0,051178514957428;-0,0758074223995209;0,16783407330513;0,333248823881149;-0,00864920020103455;-0,238233834505081;-0,34463968873024;0,250585079193115;0,394054800271988;0,237757951021194;-0,256071656942368;0,274993419647217;-0,195829838514328;-0,0180098116397858;-0,116789966821671;0,0654876232147217;0,334328860044479;-0,35917928814888;-0,204971805214882;0,357307702302933;0,31164762377739;0,170002833008766;0,312490463256836;0,00478330254554749;0,171880900859833;0,252717882394791;0,139214038848877;-0,173454061150551;-0,3117336332798;-0,390655606985092;-0,328297883272171;-0,265102475881577;-0,0760428011417389;0,313853651285172;0,201106548309326;0,21049690246582;-0,157869309186935;-0,0382634699344635;-448,897449204741;-770,120724893542;104,059982370934;-164,760311628586;-250,064129058549;-79,5557135780393;-0,32646170258522;-7,50076422344481;-4,52126717273858;-2,61524611752224;-1,98195922766386;-2,3896233225538;3,43068896513428;-0,180517926812172;
