-0,3730748295784;0,143002152442932;-0,547994613647461;0,40114963054657;-0,0991935729980469;-0,473300337791443;-0,419733136892319;-0,218951165676117;0,0158724784851074;0,278936445713043;-0,306552886962891;0,351624011993408;-0,162994265556335;-0,29994660615921;0,536834359169006;-0,429272890090942;0,236440509557724;0,343516021966934;0,21933975815773;-0,158151134848595;-0,257139086723328;0,363460212945938;-0,378466010093689;-0,415900230407715;0,0056949257850647;0,483513921499252;-0,0713496804237366;0,271744817495346;0,282136768102646;0,319067567586899;-0,371476531028748;-0,325890243053436;-0,501123666763306;-0,357527911663055;0,125049531459808;0,351076543331146;-0,231327652931213;-0,143745303153992;-0,571614861488342;-0,125905528664589;0,108205392956734;0,315188318490982;-0,544196009635925;-0,371664643287659;0,307249397039413;-0,464698940515518;0,376086175441742;0,395599067211151;-0,453591197729111;-0,341310918331146;-0,00672371685504913;-0,0410919860005379;0,0446029826998711;-0,111110605299473;0,144729375839233;0,193971931934357;-0,239893794059753;0,0929338559508324;-0,208188414573669;-0,129647672176361;-0,140775203704834;0,209409892559052;-0,0598914846777916;0,0772311314940453;0,0933529958128929;-0,122572183609009;-0,0390717685222626;-0,0412675440311432;-0,214631378650665;0,14941743016243;0,231983602046967;-0,189974665641785;0,22490581870079;0,130625382065773;-0,122273147106171;0,176741808652878;0,0617052242159843;0,143014758825302;-0,082912988960743;0,163871169090271;0,0448027849197388;-0,076232336461544;-0,086227260529995;0,0737596899271011;0,216661274433136;0,136499285697937;-0,131271809339523;-0,186316758394241;0,236792176961899;-0,173246324062347;0,239364504814148;0,238872706890106;-0,156225293874741;-0,198732614517212;0,00917252898216248;-0,0825881585478783;0,219934612512589;0,210494041442871;-0,234605371952057;-0,130399763584137;0,0426234304904938;0,21657606959343;0,111011527478695;-0,0629228577017784;-0,127114117145538;-0,09145737439394;0,172626003623009;0,179948106408119;0,212750196456909;0,00156603753566742;-0,142242848873138;-0,223615616559982;0,0831601545214653;-0,196592181921005;0,196617215871811;-0,137659966945648;0,115344136953354;-0,218849509954453;0,116147458553314;0,185769647359848;0,072639599442482;-0,0379612818360329;0,0858103781938553;0,182469189167023;-0,033178448677063;-0,0675169751048088;-0,188331127166748;0,16422775387764;0,093222588300705;0,010448195040226;-0,0662210360169411;0,0150463208556175;-0,0123878046870232;0,101155810058117;0,0407444834709167;-0,13939356803894;-0,225720763206482;-0,0106059014797211;-0,0539055988192558;0,151386559009552;-0,236230850219727;0,165392488241196;0,0894023925065994;0,165845036506653;-0,152665853500366;-0,0685973465442657;-0,15169969201088;-0,135262578725815;0,232990503311157;-0,185690402984619;-0,171057373285294;0,1347636282444;0,203239470720291;0,0215969160199165;-0,174901902675629;0,0573311522603035;0,0893147811293602;-0,226688802242279;-0,236702919006348;0,0990815088152885;0,144827499985695;0,0948881730437279;0,126065537333488;0,156057357788086;0,00773508846759796;0,1629618704319;-0,174523651599884;0,057989127933979;-0,0588741600513458;-0,155475646257401;0,00315064191818237;0,211382001638412;-0,17396941781044;-0,0418534800410271;-0,165153473615646;-0,0954426750540733;-0,102049566805363;-0,116272300481796;0,159602671861649;0,0534960031509399;-0,132478475570679;0,215662151575089;0,2382932305336;0,0804409235715866;0,214449763298035;0,0726256296038628;-0,143821269273758;-0,15758216381073;0,134886190295219;0,22988373041153;0,0662052631378174;-0,0741696432232857;0,0820296406745911;0,0572890937328339;0,192922383546829;-0,131953358650208;0,130357936024666;0,0600908622145653;0,0311218872666359;-0,0803066566586494;-0,144588619470596;0,1706562936306;0,168222844600677;0,197671502828598;-0,0612468719482422;-0,190233588218689;0,212333470582962;0,166156381368637;-0,119694590568542;0,223022758960724;0,0736780390143394;0,155346006155014;-0,149080127477646;0,220581114292145;0,06417565792799;0,234017044305801;-0,0908639430999756;-0,0065070241689682;0,212153792381287;-0,145120292901993;0,058946430683136;-0,196653515100479;0,194369554519653;-0,0337056815624237;0,133737772703171;-0,0221653506159782;-0,125522911548615;0,144595295190811;0,128276363015175;-0,0817634388804436;-0,145135581493378;-0,200281798839569;0,0548041239380836;0,151000678539276;-0,186542540788651;-0,0468052849173546;-0,185110092163086;0,199081361293793;0,102141946554184;-0,214696139097214;-0,0871950313448906;-0,00904412567615509;-0,185473889112473;0,0900756418704987;0,217874854803085;0,238953500986099;-0,0265737771987915;-0,0209794566035271;-0,12617889046669;0,126225754618645;0,191599622368813;-0,0140466764569283;0,0106813684105873;0,126597911119461;0,0859416946768761;-0,0647610053420067;-0,0747052952647209;0,0202984213829041;0,0498304069042206;-0,0485930144786835;0,202232509851456;0,146872162818909;0,0854268297553062;-0,151763945817947;0,0787867307662964;-0,0326963141560555;-0,198724538087845;0,0941996276378632;-0,0606780350208282;-0,133064925670624;0,896515724475201;-1,30869137316247;0,0424796960999099;1,16793205831521;-1,35259123588385;1,84155070287265;1,1256525491372;-0,248914724916977;2,23297413001454;-2,46835831000407;0,0768172070384026;0,0458686216871668;0,291177656975805;0,200264261035062;0,904486609557924;-0,281401110131309;0,407465263609757;0,397752763429865;-0,585382403528679;0,765341820107062;-0,686351982166116;-0,23508632183075;
